GIS
5
0.0
2
F
T
3
716 0
162 0 1
4 1
882
keyword=said
keyword=he
keyword=that
keyword=it's
keyword=get
keyword=with
keyword=like
keyword=,
keyword=do
keyword=their
keyword=what
keyword=then
keyword=3
keyword=be
keyword=for
keyword=first
keyword=as
keyword=Mark:
keyword=played
keyword=here
keyword=can
keyword=you
keyword=1
keyword=good
keyword=when
keyword=8
keyword=you're
keyword=at
keyword=know,
keyword=but
keyword=one
keyword=out
keyword=2
keyword=he's
keyword=And
keyword=it
keyword=take
keyword=You
keyword=have
keyword=so
keyword=has
keyword=they
keyword=So
keyword=4
keyword=it.
keyword=hurt
keyword=miss
keyword=are
keyword=look
keyword=start
keyword=matt:
keyword=know
keyword=put
keyword=some
keyword=since
keyword=years
keyword=swinging
keyword=an
keyword=damage
keyword=here,
keyword=got
keyword=about
keyword=had
keyword=that's
keyword=10
keyword=this
keyword=up
keyword=right
keyword=He
keyword=field
keyword=if
keyword=i
keyword=guy
keyword=one.
keyword=looked
keyword=He's
keyword=really
keyword=here.
keyword=johnson
keyword=that,
keyword=what's
keyword=second
keyword=going
keyword=him
keyword=from
keyword=back
keyword=there
keyword=away
keyword=rather
keyword=trying
keyword=-2
keyword=far
keyword=tonight.
keyword=vinny
keyword=make
keyword=how
keyword=-1
keyword=between
keyword=texas
keyword=last
keyword=no
keyword=count
keyword=see
keyword=base
keyword=0
keyword=corner
keyword=even
keyword=hot
keyword=we
keyword=need
keyword=blum
keyword=I
keyword=now.
keyword=runners
keyword=It
keyword=now
keyword=will
keyword=gone.
keyword=did
keyword=who
keyword=hits
keyword=The
keyword=almost
keyword=missed
keyword=your
keyword=hit
keyword=at-bat,
keyword=gets
keyword=that.
keyword=all
keyword=mark:
keyword=inside
keyword=would
keyword=say
keyword=point
keyword=where
keyword=cameron
keyword=time
keyword=piazza
keyword=th.
keyword=him.
keyword=opportunity
keyword=diego's
keyword=runner
keyword=runs
keyword=A
keyword=looks
keyword=bring
keyword=tonight,
keyword=think
keyword=fastball.
keyword=gonzalez
keyword=shoots
keyword=foul.
keyword=than
keyword=more
keyword=lot
keyword=adrian
keyword=these
keyword=center
keyword=over
keyword=5
keyword=matty,
keyword=bat
keyword=head.
keyword=drive
keyword=now,
keyword=things
keyword=We
keyword=were
keyword=looking
keyword=giles
keyword=score
keyword=th
keyword=barajas
keyword=base.
keyword=rod
keyword=there's
keyword=work
keyword=big
keyword=second.
keyword=way,
keyword=tell
keyword=or
keyword=every
keyword=pitch.
keyword=sure
keyword=goes
keyword=i'm
keyword=yeah.
keyword=used
keyword=office
keyword=.
keyword=90
keyword=only
keyword=out.
keyword=lead
keyword=throw
keyword=young
keyword=pitches
keyword=still
keyword=go-ahead
keyword=just
keyword=matty.
keyword=It's
keyword=guys
keyword=team
keyword=They
keyword=game
keyword=they're
keyword=play
keyword=those
keyword=coming
keyword=teixeira
keyword=getting
keyword=gone
keyword=stays
keyword=best
keyword=time,
keyword=never
keyword=That
keyword=approach,
keyword=try
keyword=0.333
keyword=yeah,
keyword=prepares
keyword=teacher
keyword=rangers.
keyword=after
keyword=6
keyword=ranger
keyword=being
keyword=don't
keyword=players
keyword=might
keyword=29
keyword=coach
keyword=pair
keyword=castilla
keyword=why
keyword=buck
keyword=went
keyword=little
keyword=pick
keyword=ball.
keyword=very
keyword=batters
keyword=25
keyword=come
keyword=That's
keyword=vinny,
keyword=around
keyword=middle
keyword=center,
keyword=too
keyword=high
keyword=any
keyword=it,
keyword=different
keyword='s,
keyword=tough
keyword=another
keyword=next
keyword=off,
keyword=comes
keyword=back.
keyword=third.
keyword=us
keyword=upper
keyword=insurance
keyword=I'm
keyword=same
keyword=run,
keyword=chance
keyword=apiece.
keyword=There's
keyword=opposite
keyword=field,
keyword=back,
keyword=can't
keyword=top
keyword=plate
keyword=nicely.
keyword=How
keyword=well
keyword=there,
keyword=doubles
keyword=thing
keyword=such
keyword=bad
keyword=chuckles
keyword=-4
keyword=hang
keyword=change
keyword=him,
keyword=batter
keyword=talked
keyword=fact,
keyword=until
keyword=balls
keyword=strong
keyword=body
keyword=brad
keyword=up.
keyword=tomorrow
keyword=night.
keyword=wilkerson
keyword=corner,
keyword=This
keyword=bottom
keyword=year
keyword=San
keyword=lead.
keyword=mentioned
keyword=one,
keyword=before
keyword=made
keyword=because
keyword=strike
keyword=bullpen.
keyword=We'll
keyword=bard
keyword=maybe
keyword=knows
keyword=couple
keyword=turn
keyword=half
keyword=adkins
keyword=short
keyword=makes
keyword=two
keyword=nice
keyword=starts
keyword=me
keyword=playing
keyword=want
keyword=quick
keyword=ground
keyword=run.
keyword=find
keyword=way
keyword=gives
keyword=Nothing
keyword=may
keyword=If
keyword=viagra
keyword=doctor
keyword=ask
keyword=you.
keyword=away.
keyword=around.
keyword=>>
keyword=bit.
keyword=man
keyword=>>>
keyword=under
keyword=says
keyword=her
keyword=able
keyword=them
keyword=she
keyword=series.
keyword=won't
keyword=expected
keyword=morning.
keyword=seeing
keyword=rain
keyword=other
keyword=couldn't
keyword=open
keyword=started
keyword=way.
keyword=much
keyword=people
keyword=our
keyword=11
keyword=making
keyword=does
keyword=sometimes
keyword=But
keyword=believe
keyword=free
keyword=john
keyword=given
keyword=fbi
keyword=could
keyword=give
keyword=today.
keyword=temperatures
keyword=again
keyword=heavy
keyword=its
keyword=48
keyword=again.
keyword=inches
keyword=three
keyword=across
keyword=d.c.
keyword=More
keyword=saying
keyword=washington,
keyword=All
keyword=right.
keyword=doing
keyword=91
keyword=Yeah.
keyword=we're
keyword=water
keyword=hours.
keyword=Good
keyword=morning
keyword=games
keyword=my
keyword=part
keyword=To
keyword=judge
keyword=yesterday.
keyword=gave
keyword=limbaugh
keyword=feet
keyword=air
keyword=30
keyword=york.
keyword=also
keyword=Three
keyword=60
keyword=minute
keyword=arrival
keyword=departure
keyword=scattered
keyword=rain,
keyword=low
keyword=delays.
keyword=power
keyword=already
keyword=showed
keyword=allowing
keyword=college
keyword=series
keyword=them.
keyword=threw
keyword=use
keyword=center.
keyword=Before
keyword=throws
keyword=wasn't
keyword=something
keyword=better
keyword=An
keyword=cost
keyword=great
keyword=plays
keyword=2006
keyword=help
keyword=Some
keyword=army
keyword=veteran
keyword=both
keyword=year.
keyword=long
keyword=cut
keyword=south
keyword=along
keyword=band
keyword=family
keyword=break
keyword=six
keyword=guy,
keyword=36
keyword=years.
keyword=His
keyword=old
keyword=taking
keyword=12
keyword=500
keyword=tree
keyword=-555
keyword=When
keyword=rate
keyword=four
keyword=banks
keyword=win
keyword=you'll
keyword=With
keyword=50
keyword=most
keyword=night
keyword=less
keyword=299
keyword=drink
keyword=pints
keyword=There
keyword=fell
keyword=Reporter:
keyword=calls
keyword=20
keyword=dealing
keyword=tonight
keyword=england
keyword=match
keyword=reporter:
keyword=london
keyword=they'll
keyword=set
keyword=ended
keyword=7
keyword=9
keyword=:00
keyword=prime
keyword=At
keyword=news."
keyword=today
keyword=news.
keyword=week
keyword=shut
keyword=lost
keyword=bit
keyword=collapsed
keyword=Two
keyword=floors
keyword=came
keyword=members
keyword=ten
keyword=trapped
keyword=pulled
keyword=strike.
keyword=information
keyword=report
keyword=2000
keyword=many
keyword=hour.
keyword=which
keyword=Is
keyword=president
keyword=For
keyword=publish
keyword=took
keyword=weeks
keyword=story
keyword=house
keyword=should
keyword=include
keyword=32
keyword=press
keyword=feeling
keyword=administration
keyword=450
keyword=minister
keyword=white
keyword=court
keyword=brought
keyword=serious
keyword=debate
keyword=become
keyword=supreme
keyword=tuesday.
keyword=hold
keyword=rain.
keyword=east
keyword=through
keyword=atlanta.
keyword=On
keyword=in.
keyword=thunderstorms
keyword=As
keyword=wave
keyword=88
keyword=boston,
keyword=81
keyword=afternoon.
keyword=80
keyword=five
keyword=days
keyword=talking
keyword=no.
keyword=face
keyword=What
keyword=world
keyword=whether
keyword=I've
keyword=life.
keyword=takes
keyword=let's
keyword=business
keyword=Now
keyword=data
keyword=time.
keyword=love
keyword=good.
keyword=delays
keyword=mean
keyword=wind,
keyword=visibility,
keyword=later
keyword=minutes
keyword=clouds,
keyword=airport
keyword=today,
keyword=p.m.
keyword=I'll
keyword=call
keyword=whole
keyword=total
keyword=didn't
keyword=dropped
keyword=north
keyword=game.
keyword=score.
keyword=93
keyword=shot
keyword=know.
keyword=Thank
keyword=case
keyword=extra
keyword=though,
keyword=catch
keyword=followed
keyword=past
keyword=meade.
keyword=Let's
keyword=certain
keyword=entire
keyword=seven
keyword=2010
keyword=witness
keyword=woman
keyword=gotten
keyword=episode
keyword=trial.
keyword=In
keyword=kids
keyword=called
keyword=according
keyword=hear
keyword=save
keyword=children
keyword=kind
keyword=remember
keyword=insanity.
keyword=doesn't
keyword=punishment.
keyword=decision
keyword=offer
keyword=,000
keyword=yes
keyword=costs
keyword=higher
keyword=points.
keyword=plans
keyword=music
keyword=speed,
keyword=Start
keyword=See
keyword=lunesta
keyword=sleep
keyword=hours
keyword=Most
keyword=risk
keyword=side
keyword=effects
keyword=Ask
keyword=let
keyword=latest.
keyword=million
keyword=pictures
keyword=least
keyword=taken
keyword=angelina
keyword=Maybe
keyword=No,
keyword=Even
keyword=story.
keyword=wrote
keyword=characters
keyword=naomi
keyword=former
keyword=outside
keyword=complete
keyword=week.
keyword=leave
keyword=nearly
keyword=Did
keyword=Because
keyword=No
keyword=we'll
keyword=word
keyword=actions
keyword=there.
keyword=sunshine.
keyword="
keyword=check
keyword=heard
keyword=three-story
keyword=sat
keyword=dinner.
keyword=point,
keyword=inside.
keyword=marine
keyword=during
keyword=soldier
keyword=while
keyword=none
keyword=men
keyword=convicted
keyword=crime.
keyword=minister's
keyword=installment
keyword=She
keyword=himself
keyword=risk.
keyword=actually
keyword=book
keyword=well.
keyword=One
keyword=person
keyword=100
firstword
prevfirstword
keyword=the
nextcap
cap
prevcap
keyword=to
keyword=a
keyword=and
keyword=on
prevpunct
keyword=in
keyword=is
keyword=not
keyword=was
keyword=his
keyword=rangers
keyword=ted
keyword=williams
keyword=of
keyword=Matt:
keyword=manager
keyword=into
keyword=against
keyword=fastball
keyword=down
keyword=home
keyword=ball
keyword=mark
keyword=been
keyword=off
keyword=league
keyword=line
keyword=Castilla
keyword=run
keyword=ben
keyword=mike
keyword=san
keyword=padilla
keyword=vicente
keyword=diego
keyword=pitch
keyword=Mike
keyword=padres
keyword=ballpark
keyword=breaking
keyword=baseball
keyword=major
keyword=double
keyword=gary
keyword=hank
keyword=matthews
keyword=Cameron
keyword=by
keyword=pretty
keyword=go
keyword=hitting
keyword=fly
keyword=derosa
keyword=jaramillo
keyword=rudy
keyword=pitching
keyword=talk
keyword=feel
keyword=feldman
keyword=brian
keyword=sikorski
keyword=left
keyword=having
keyword=inning
keyword=ian
keyword=kinsler
speakerchange
keyword=building
keyword=national
keyword=washington
keyword=weather
keyword=program
keyword=records
keyword=american
keyword=new
keyword=york
keyword=show
keyword=minor
keyword=federal
keyword=missouri
keyword=without
keyword=state
keyword=oregon
keyword=fans
keyword=day
keyword=iraq
keyword=life
keyword=heart
keyword=dell
keyword=service
keyword=robin
keyword=headline
keyword=central
keyword=elks
keyword=government
keyword=President
keyword=bush
keyword=financial
keyword=terror
keyword=secret
keyword=interest
keyword=security
keyword=times"
keyword=united
keyword=states
keyword="new
keyword=times
keyword=general
keyword=public
keyword=war
keyword=released
keyword=plan
keyword=approved
keyword=areas
keyword=closed
keyword=reason
keyword=pork
keyword=rally
keyword=Brian
keyword=staff
keyword=space
keyword=news
keyword=prosecution
keyword=u.s.
keyword=andrea
keyword=yates
keyword=attorney
keyword=defense
keyword=evidence
keyword=insanity
keyword=guilty
keyword=retired
keyword=workers
keyword=final
keyword=chapter
keyword=summer
keyword=mercedes-benz
keyword=media
keyword=harry
keyword=potter
keyword=Rowling
keyword=prison
keyword=collapse
keyword=crashing
keyword=lodge
keyword=iraq's
keyword=abu
keyword=ghraib
keyword=Iraq's
keyword=advisor
keyword=reconciliation
keyword=prisoners
keyword=northern
keyword=j.k.
keyword=kill
keyword=clinton
keyword=global
keyword=warming
keyword=mental
keyword=terrorists
12.273134652278644
13.943659957962321
13.853289380772283
13.071736834312837
14.138146395727603
13.72687084725031
13.89578915365864
13.5385142834019
13.918028126803991
13.430974643138677
13.618301810268862
13.062345763435633
14.167089251761368
13.928499783540452
13.757051198352245
14.669794030543239
13.963870690956638
5.511425647834166
12.341695906849838
12.878626618280427
13.920995791854054
13.310047812166651
13.877977199957789
13.132865860351878
13.831701342988783
14.755639940371973
13.94709877514674
13.832144624556152
11.973714922868355
13.913085876080347
13.713395355523225
13.866761211283517
14.48008557829208
11.805956870013073
5.212708909339682
14.126247231569934
12.717036710848769
4.898262124852474
13.885242736088246
12.242232360536102
13.301580459741372
13.759873193012455
5.053600636406301
14.02407955276944
7.335750014777032
14.938101086554084
14.938101086554084
12.414176735743105
13.01819696248993
11.669602463099386
12.630058207871631
14.121237461020794
13.49647855780687
14.764120882933115
12.714760003903256
14.938101086554093
12.104670143386455
13.196262402011252
12.465742497973247
13.562880409536703
12.552314114212788
12.990797493841178
12.69518404874252
12.496044950049953
14.505800969824993
13.946849769551033
13.883801781021305
13.649041118991912
5.30046123185872
14.476416747575211
12.942708036506454
13.180164424856576
12.759880885810698
2.761836787832129
12.925743655170166
5.379540119649047
12.960064758146194
6.487921993395872
13.371624297741073
12.599235837998688
12.422473114386607
13.971516455814589
13.656119689313444
14.251426065237974
14.426967945640248
13.463271998160275
14.045938310887825
13.563104272098643
14.060023263905482
13.971516455814589
14.938101086554088
10.45380639714002
7.126051788296425
13.062345763435633
13.289885235504295
13.221723466989433
13.89518641557488
13.371624297741073
13.4168935510004
13.772856425247976
14.351823107798406
14.19426976292247
13.157907919161387
13.243357081998134
13.713657664086865
14.938101086554086
14.142063477517171
14.938101086554079
13.492158116587497
14.938101086554084
12.672767636996415
4.590580360569011
6.774169567055965
13.118408811049724
4.729511244449089
13.680450301538318
13.28818230729794
6.312856340254777
12.944604427285471
14.20038033416601
13.8664982311509
4.7709814415861596
12.422473114386607
14.938101086554086
13.60254197910176
13.826580502419002
13.80835730121319
13.062345763435635
2.5862777626705005
13.046941281999548
12.708202553354218
13.018196962489917
11.927288686322651
13.698861230119475
14.938101086554086
14.938101086554093
13.289885235504302
14.036797287135279
13.118408811049724
2.7618367878321513
2.761836787832129
13.216547402074095
11.632337322545176
12.902904994085187
14.938101086554086
5.142298735682482
11.21619427296808
14.938101086554086
14.938101086554084
14.228695253581872
2.508389887694243
5.502865637262963
14.938101086554079
9.664887139715843
14.137205179099066
13.806092055614414
13.656221973291535
10.2641395819113
14.402147138635366
10.794940153153119
14.219668882049284
14.43484832137073
13.216547402074095
14.938101086554083
2.7618367878321246
13.630973956505095
14.938101086554097
13.492595931317428
5.222037743614528
13.062126107233935
14.938101086554083
13.697885639026692
12.465742497973247
14.428061993055348
12.960910580785335
7.651111640816627
14.262872717988715
14.013454336393732
12.111197908893066
14.675519552506817
9.664887139715843
13.968507726029506
12.902904994085208
13.995784876441313
14.207433309695002
8.483176351040184
13.968507726029506
13.371624297741073
12.464701731428407
8.185865241884805
14.938101086554084
13.80835730121319
9.549921966018292
13.633714869361171
13.325208805478653
6.551311412926471
13.700599249544716
13.8664982311509
11.669602463099386
14.938101086554086
14.93810108655409
14.938101086554079
13.716840907999758
9.664887139715843
4.999174103146935
13.176643107626816
11.181335534145397
4.941057792324041
14.036797287135279
12.58712545509918
13.94709877514674
14.938101086554093
13.635405437917758
11.632337322545176
14.420054709982836
14.259576284951352
12.902904994085183
13.8664982311509
13.485769414231813
12.465742497973247
4.66852242609976
10.115419230024433
13.289885235504302
13.243357081998138
9.537313901618708
14.938101086554079
13.216547402074095
2.761836787832129
13.792680369481339
14.492734702606986
14.938101086554086
14.013454336393732
10.50988782210773
9.911479801417133
13.485769414231813
14.424613848323174
14.938101086554079
13.216547402074095
14.938101086554079
13.325450511747855
13.018196962489913
14.155435158225789
12.902904994085208
14.938101086554079
2.7618367878321246
14.938101086554097
14.938101086554079
13.216547402074095
13.01819696248993
4.483693947242316
14.938101086554086
14.669785679982764
14.938101086554086
14.938101086554079
12.672767636996415
13.335949780341727
14.19426976292247
14.938101086554084
14.013454336393732
14.938101086554079
14.142063477517171
14.292877948505605
13.881587755260046
12.894324475650603
11.726380171333128
12.257399281153639
8.483176351040184
14.170218961101213
14.938101086554084
13.216547402074095
4.718999256940021
14.155435158225789
14.938101086554079
14.938101086554084
9.664887139715843
4.988441261063423
14.938101086554079
13.80835730121319
9.911479801417133
11.077408954433134
14.938101086554083
14.938101086554086
2.2850838807545677
4.536474445730426
14.938101086554083
13.485769414231813
11.518705067811826
11.589135171454572
14.013454336393732
13.56310427209865
12.902904994085183
13.332728376691271
13.371624297741073
13.56310427209865
14.938101086554079
10.2641395819113
13.485769414231813
14.938101086554079
14.155435158225789
14.155435158225789
9.911479801417133
14.938101086554079
14.060023263905482
2.761836787832129
12.551877799537982
2.7618367878321286
13.80835730121319
12.902904994085183
4.896254104572875
14.938101086554084
12.902904994085187
5.785709699120389
2.7618367878321246
12.902904994085183
14.938101086554079
14.155435158225789
14.938101086554088
13.52459844587826
14.938101086554079
9.664887139715843
4.530186863905461
13.018196962489913
13.75943400178849
12.902904994085183
13.235295513336567
14.938101086554086
14.938101086554079
12.960910580785335
14.938101086554079
14.938101086554086
14.624868022860042
13.216547402074095
10.794940153153119
12.043845742877584
14.938101086554086
14.018574658600759
14.938101086554079
14.938101086554086
2.7618367878321246
13.80835730121319
13.4168935510004
13.018196962489913
5.437881364896784
14.228695253581872
5.208396217833854
13.80835730121319
14.938101086554084
13.485769414231813
8.505140582308117
8.322248774710925
2.2436330604337322
5.210361267476908
2.3592977254412952
12.612943550895052
6.597008777497011
14.938101086554084
13.737734649227
13.987227975336468
14.938101086554083
14.938101086554083
14.93810108655409
7.031400522133589
13.849804895159007
13.289885235504302
5.997760414270465
12.902904994085183
13.329773818283169
12.893492383239737
10.89912935350173
14.938101086554086
12.902904994085183
10.469054705565235
13.300464292111574
13.98136263965082
12.759880885810698
13.80835730121319
13.593025770990614
11.59476953560018
12.902904994085183
5.671891582950934
13.968507726029506
13.04767327587767
12.902904994085183
13.485769414231813
6.202752856808912
12.599235837998709
14.938101086554083
9.323572094582403
10.2641395819113
12.541387458705575
14.938101086554086
14.938101086554083
14.938101086554079
2.761836787832129
13.335949780341727
12.11009058764895
14.938101086554079
8.093876272816447
4.896254104572875
14.938101086554086
11.518705067811826
4.828773084029654
1.841497994289572
13.357449258361491
13.630973956505095
1.925923203666958
12.599235837998688
14.938101086554086
6.7527778660919395
4.114873289376676
12.27691568843155
12.902904994085183
14.938101086554084
14.938101086554083
5.785709699120389
12.800612561748164
5.7493846884358
14.938101086554086
12.902904994085183
14.938101086554079
14.938101086554084
13.56310427209865
2.761836787832129
11.32940673136941
5.437881364896784
14.132710319007526
14.33923724053858
14.368385074710375
14.33923724053858
10.740104326002633
14.938101086554084
12.48934543485759
2.377492985274851
14.060023263905482
13.485769414231813
13.56310427209865
9.698245200228968
13.80835730121319
14.155435158225789
12.894324475650606
12.902904994085183
14.938101086554086
9.491053950347416
5.785709699120389
13.216547402074095
11.632337322545176
12.599235837998688
14.938101086554084
4.999174103146928
12.672767636996415
14.292877948505605
14.938101086554086
14.194269762922463
14.938101086554086
2.68314513123546
14.938101086554086
13.485769414231813
14.013454336393732
10.064489732298256
13.697885639026692
12.311641191037626
11.632337322545176
13.80835730121319
13.216547402074095
13.56310427209865
14.938101086554079
13.289885235504302
14.938101086554079
11.632337322545176
10.38361799843301
5.208396217833854
12.902904994085183
14.420054709982836
14.938101086554083
14.013454336393732
13.018196962489913
12.599235837998688
5.40522067749374
14.938101086554079
14.938101086554084
10.77017327632068
13.968507726029506
12.672767636996415
5.151423979056957
14.142063477517171
14.938101086554083
14.938101086554088
13.4168935510004
13.441986776808864
13.80835730121319
12.902904994085183
4.308038275927232
13.216547402074095
1.465037538188202
14.938101086554084
14.938101086554086
12.21108425944444
13.80835730121319
13.216547402074095
14.938101086554086
0.9542784046515742
14.938101086554079
14.938101086554086
14.938101086554079
14.938101086554086
12.311641191037626
13.56310427209865
14.57863832022852
12.11009058764895
5.785709699120393
12.902904994085183
13.8664982311509
11.413326851144861
13.485769414231813
14.938101086554079
13.968507726029506
13.80835730121319
8.730293621723122
2.9655723385580943
9.972031563115502
13.062345763435633
13.8664982311509
12.465742497973247
13.80835730121319
14.938101086554079
2.7618367878321246
13.56310427209865
12.902904994085183
14.938101086554079
13.118408811049724
13.804103957646396
13.018196962489917
5.054210506743484
13.52459844587826
4.980877497405873
14.938101086554086
13.216547402074095
9.911479801417133
14.938101086554086
13.697885639026692
12.612943550895052
14.013454336393732
14.938101086554079
13.485769414231813
12.902904994085183
13.697885639026692
10.642672344071109
11.743244959718949
11.826875932218863
12.464701731428407
14.938101086554079
12.902904994085183
14.938101086554086
13.216547402074095
10.77017327632068
2.293173120303159
14.938101086554086
2.293173120303159
14.938101086554084
14.938101086554086
2.21881876639313
5.054210506743484
11.538211761897479
13.062345763435633
4.563765702962862
14.938101086554079
14.938101086554079
14.938101086554079
12.902904994085183
12.894324475650603
13.733671324097003
12.902904994085183
13.697885639026692
14.259576284951352
11.812634874862123
13.485769414231813
5.016845383787244
12.960910580785335
14.938101086554084
2.0542146864000053
14.938101086554079
13.018196962489913
13.018196962489913
13.216547402074095
4.684497659265811
13.018196962489913
6.7527778660919395
13.216547402074095
4.462336793678948
14.938101086554088
11.518705067811826
14.938101086554079
12.902904994085183
14.013454336393732
8.203893147808772
13.216547402074095
14.938101086554079
13.56310427209865
9.664887139715846
4.787374848081535
14.938101086554079
10.77017327632068
14.938101086554079
11.933327524186055
13.018196962489913
12.902904994085183
2.7618367878321246
2.8214898262155828
14.938101086554086
14.938101086554079
8.908091599483555
4.573637387306439
14.938101086554086
14.938101086554079
9.911479801417133
14.938101086554079
13.018196962489913
10.115419230024433
2.7618367878321246
4.579401471927516
13.018196962489913
14.938101086554079
13.8664982311509
13.485769414231804
12.902904994085183
14.938101086554079
14.938101086554079
13.018196962489913
9.516126710674794
3.91926588875764
13.8664982311509
12.902904994085183
13.216547402074095
14.938101086554079
13.56310427209865
14.938101086554084
12.902904994085183
10.77017327632068
9.664887139715843
13.018196962489913
1.6481598243759905
14.938101086554079
14.938101086554086
14.938101086554084
13.018196962489913
14.938101086554079
12.902904994085183
8.322248774710925
13.697885639026692
14.938101086554079
9.911479801417133
5.785709699120389
4.811601721163789
9.239165339007773
13.968507726029506
10.453806397140017
5.785709699120389
12.902904994085183
12.902904994085183
10.453806397140017
4.787374848081535
5.80349100231388
12.799707506035393
14.938101086554086
14.938101086554079
9.239165339007773
14.938101086554079
14.938101086554079
4.999174103146928
3.0290286445155155
4.999174103146928
9.664887139715843
14.938101086554086
13.485769414231813
10.2641395819113
14.938101086554079
13.018196962489913
14.938101086554079
2.7618367878321246
13.216547402074095
12.902904994085183
4.094348943398319
4.999174103146928
4.8222028946434765
12.902904994085183
10.77017327632068
13.018196962489913
2.293173120303159
4.066310758278777
14.938101086554079
10.77017327632068
4.549674044747173
12.902904994085183
12.902904994085183
2.7618367878321246
12.902904994085183
2.2436330604337322
12.902904994085183
13.018196962489913
12.902904994085183
14.938101086554079
14.938101086554079
12.902904994085183
9.698245200228968
2.7618367878321246
14.938101086554079
14.938101086554079
5.785709699120389
14.938101086554079
9.491053950347416
14.938101086554079
14.938101086554079
9.664887139715843
4.094348943398319
13.018196962489913
13.216547402074095
1.2889978441616483
-16.8242750073671
1.2136093540228856
-11.723820161101056
1.3775966293236506
-20.576300490609324
1.3418404453865636
-17.861018557986394
1.3986040441222727
-10.108144174970786
1.3198255111072088
-7.8081426180574915
1.2745794037052853
-24.2695604304274
1.252476922797607
-23.7610501315618
1.180816573376008
-26.473796827644186
1.4863314487822876
-17.97843881340728
0.630917829947709
-0.6243890280314703
1.4380618747949692
-19.489039554413534
1.3932188474198632
-19.15164856283223
1.4986315467740527
-16.615886789639433
1.3814799282496009
-17.463962678492123
1.5225994337328679
-16.928031804612935
1.7983915312682854
-11.048229004438271
-2.155209390824347
1.3105265112693967
-8.138540541279701
6.203042029842826
1.4680628760020644
-18.23320896399057
0.9529948174190723
-6.391032359678604
1.4813938030770955
-6.836361295850635
1.6664737882660385
-14.295610967583055
1.6903967673503524
-7.317273446203366
1.7063390758124823
-7.303463773549939
1.7587473173894725
-13.246292733432936
1.8673510442596073
-6.195635610493651
1.6423418628571134
-13.897589539828624
1.1337959277371787
-2.5059567950030095
1.538400623714454
-14.291176749333657
1.6772023744418636
-14.835512071279506
1.5245538814655304
-3.1601994945498815
1.4933743778360782
-4.057591970983033
-4.782224852158443
6.788183550282629
1.853103966398432
-11.69655182201719
1.865146420109189
-7.885916793273827
1.8045230694726042
-9.293113390720478
1.77855526375768
-8.418827950808701
0.491397668994366
-0.6277437985999099
1.4951411327571582
-2.741348168315872
1.6634693531809395
-9.5428397254432
1.8728323116163632
-11.382352191991433
-18.825268613928383
18.68761571366532
1.6741631319431047
-6.584171840896419
0.3692270986186349
-0.4464400516952805
1.3105265112693967
-2.155209390824347
1.7598789349836894
-7.490077073376759
1.5677340758868876
-4.246741135491309
1.8450288791361746
-7.184726677882819
0.9046736258854662
-1.499174870253544
1.1126620562453773
-2.94742004708908
0.0
0.0
-2.154467942618412
5.950204557728918
1.6580672352610395
-14.707982601939532
0.27801348784594326
-0.339904581303226
1.7273490697929694
-13.065983810101113
1.80552000001242
-6.376061497372477
1.1578293986969883
-2.5664189221117812
0.19635579232051903
-0.22921414791313977
-4.164302065389572
3.5051096260333283
-2.155209390824347
1.3105265112693967
1.412494142701529
-4.454748872969763
1.415986065104101
-6.0386966841209455
1.1110461769686886
-2.4512387356464154
1.1459746529922676
-3.0544216422078283
1.5845356403535475
-5.651425401446914
-0.641270335736146
0.6794822751813359
1.4933743778360782
-4.057591970983033
2.0050220827027703
-6.953775261612564
1.1110461769686888
-2.4512387356464154
-2.155209390824347
1.3105265112693967
0.27449875993495687
-0.34304973293025864
0.7241339975454535
-2.536758543743714
1.587744955983739
-8.3021546734846
-2.1140485469304506
4.106406515731871
1.3105265112693945
-2.155209390824349
1.1459746529922563
-3.054421642207839
1.434823896957476
-3.183156658350678
0.8666115313878517
-1.1607140087399963
1.1110461769686886
-2.4512387356464154
1.803166208037537
-10.868717825904769
1.7897454635439742
-4.79398777644524
1.609996794437341
-9.666919477945324
-0.8263190783070156
1.279317808291958
0.040324691825048276
0.7490470492122355
-5.13708540506277
2.079145925409275
1.9718853247812815
-6.075304235749977
-0.04055181150346865
0.3559338104167211
-1.9322855842791427
6.087890218756378
1.5917942305878507
-5.677774526246388
1.4933743778360782
-4.057591970983033
0.0
0.0
1.1110461769686886
-2.4512387356464154
1.5677340758869
-4.2467411354912965
-1.1772488072429828
3.1102525411378115
1.7251867718555876
-3.767874670366003
1.054941203586817
-3.6161171673426744
1.4933743778360782
-4.057591970983033
0.0
0.0
1.7251867718555876
-3.767874670366003
0.0
0.0
-0.881020328745223
9.353184830867978
-2.576231511288688
5.971758060044826
1.3105265112693967
-2.155209390824347
0.0
0.0
-2.155209390824347
1.3105265112693967
0.1532627614423897
-0.09258244463047918
-0.4944558754276076
1.3268920705825429
0.9918897972109126
-2.9077358371618565
-1.483842811641658
1.6332653140247806
-1.259220131436478
1.3867408293633723
0.7202129576977556
-1.5895417198662403
0.4947386915109071
-0.8043811428639739
1.1459746529922668
-3.0544216422078287
1.3105265112693967
-2.155209390824347
1.3105265112693967
-2.155209390824347
1.9718853247812815
-6.075304235749977
0.25532718321510295
0.3971477163264686
1.1110461769686886
-2.4512387356464154
0.27801348784594326
-0.3399045813032259
0.670923722996705
-1.293688702628335
1.3839775324311054
-5.893724929511695
0.45445808672996124
-0.6765868565896256
1.236445100094819
-2.741245659671975
-2.154467942618412
5.950204557728918
1.3105265112693967
-2.155209390824347
1.7251867718555876
-3.767874670366003
1.470974589030176
-4.638932854940109
1.7251867718555876
-3.767874670366003
-1.8075195030211355
13.016101943776686
0.9289587930375445
-2.478061668071193
1.6976664542471305
-5.346410746266175
0.1532627614423897
-0.09258244463047918
1.8955946269906887
-5.035877177196798
1.3105265112693967
-2.155209390824347
0.1532627614423897
-0.09258244463047918
1.3105265112693967
-2.155209390824347
0.27801348784594326
-0.339904581303226
0.1532627614423897
-0.09258244463047918
1.9718853247812815
-6.075304235749977
0.0757771194685577
-0.05013683766550314
-1.483842811641658
1.6332653140247806
-4.21545788877974
6.86803258079434
0.27801348784594326
-0.339904581303226
-2.8341909940945604
2.2172673483144827
-2.859795644064433
3.5022141546840926
-4.9305574421297385
11.881202356183076
1.1110461769686886
-2.4512387356464154
0.27801348784594326
-0.339904581303226
0.27801348784594326
-0.3399045813032259
1.3105265112693967
-2.155209390824347
1.3105265112693967
-2.155209390824347
-2.155209390824347
1.3105265112693967
-2.155209390824347
1.3105265112693967
-2.799266700424533
8.166332484439998
-2.155209390824347
1.3105265112693967
-10.94123068907095
10.672689657835843
1.3105265112693967
-2.155209390824347
0.27801348784594326
-0.339904581303226
-17.53870147491016
20.120836972608952
1.3105265112693967
-2.155209390824347
1.3105265112693967
-2.155209390824347
14.938101086554079
14.938101086554079
14.938101086554079
14.938101086554079
